digraph Tree {
node [shape=box, style="filled, rounded", color="black", fontname=helvetica] ;
edge [fontname=helvetica] ;
0 [label="ExerciseAngina <= 0.5\ngini = 0.5\nsamples = 475\nvalue = [338, 396]\nclass = Heart Disease", fillcolor="#e2f1fb"] ;
1 [label="ChestPainType <= 1.5\ngini = 0.46\nsamples = 290\nvalue = [291, 165]\nclass = Normal", fillcolor="#f4c8a9"] ;
0 -> 1 [labeldistance=2.5, labelangle=45, headlabel="True"] ;
2 [label="gini = 0.32\nsamples = 168\nvalue = [210, 52]\nclass = Normal", fillcolor="#eba06a"] ;
1 -> 2 ;
3 [label="gini = 0.49\nsamples = 122\nvalue = [81, 113]\nclass = Heart Disease", fillcolor="#c7e3f8"] ;
1 -> 3 ;
4 [label="ST_Slope <= 0.5\ngini = 0.28\nsamples = 185\nvalue = [47, 231]\nclass = Heart Disease", fillcolor="#61b1ea"] ;
0 -> 4 [labeldistance=2.5, labelangle=-45, headlabel="False"] ;
5 [label="gini = 0.2\nsamples = 154\nvalue = [26, 206]\nclass = Heart Disease", fillcolor="#52a9e8"] ;
4 -> 5 ;
6 [label="gini = 0.5\nsamples = 31\nvalue = [21, 25]\nclass = Heart Disease", fillcolor="#dfeffb"] ;
4 -> 6 ;
}