digraph Tree {
node [shape=box, style="filled, rounded", color="black", fontname=helvetica] ;
edge [fontname=helvetica] ;
0 [label="MaxHR <= 132.5\ngini = 0.5\nsamples = 465\nvalue = [343, 391]\nclass = Heart Disease", fillcolor="#e7f3fc"] ;
1 [label="ST_Slope <= 0.5\ngini = 0.39\nsamples = 199\nvalue = [84, 236]\nclass = Heart Disease", fillcolor="#7fc0ee"] ;
0 -> 1 [labeldistance=2.5, labelangle=45, headlabel="True"] ;
2 [label="gini = 0.19\nsamples = 152\nvalue = [26, 217]\nclass = Heart Disease", fillcolor="#51a9e8"] ;
1 -> 2 ;
3 [label="gini = 0.37\nsamples = 47\nvalue = [58, 19]\nclass = Normal", fillcolor="#eeaa7a"] ;
1 -> 3 ;
4 [label="ST_Slope <= 0.5\ngini = 0.47\nsamples = 266\nvalue = [259, 155]\nclass = Normal", fillcolor="#f5ccaf"] ;
0 -> 4 [labeldistance=2.5, labelangle=-45, headlabel="False"] ;
5 [label="gini = 0.42\nsamples = 111\nvalue = [52, 121]\nclass = Heart Disease", fillcolor="#8ec7f0"] ;
4 -> 5 ;
6 [label="gini = 0.24\nsamples = 155\nvalue = [207, 34]\nclass = Normal", fillcolor="#e9965a"] ;
4 -> 6 ;
}